Language model created by QuickLM on Sat Dec  3 13:22:20 EST 2016
Copyright (c) 1996-2010 Carnegie Mellon University and Alexander I. Rudnicky

The model is in standard ARPA format, designed by Doug Paul while he was at MITRE.

The code that was used to produce this language model is available in Open Source.
Please visit http://www.speech.cs.cmu.edu/tools/ for more information

The (fixed) discount mass is 0.5. The backoffs are computed using the ratio method.
This model based on a corpus of 321 sentences and 75 words

\data\
ngram 1=75
ngram 2=442
ngram 3=762

\1-grams:
-0.9648 </s> -0.2512
-0.9339 <s> -0.1827
-1.7970 AM -0.2940
-2.8964 AMERICAN -0.2761
-3.7415 ANY -0.2512
-3.7415 ANYTHING -0.2512
-2.8964 ASIAN -0.2761
-2.8964 AUSTRALIAN -0.2761
-2.8964 BAGELS -0.2761
-2.8964 BAKERY -0.2761
-2.8964 BARBECUE -0.2761
-2.8964 BRITISH -0.2761
-2.8964 BURGERS -0.2761
-2.8964 CAFE -0.2761
-2.8964 CALIFORNIAN -0.2761
-3.7415 CHEAP -0.2512
-2.8964 CHINESE -0.2761
-2.8964 COFFEE -0.2761
-2.8964 CONTINENTAL -0.2761
-2.0980 CUISINE. -0.2512
-2.8964 DONUTS -0.2761
-2.8964 DUTCH -0.2761
-2.8964 ENGLISH -0.2761
-2.8964 EUROPEAN -0.2761
-3.7415 EXPENSIVE -0.2512
-2.8964 FAST -0.3005
-3.7415 FIVE -0.2512
-2.8964 FOOD -0.2761
-1.7970 FOOD. -0.2512
-2.0980 FOOD.</S> -0.2512
-1.7970 FOR -0.2761
-3.7415 FOUR -0.2512
-2.8964 FRENCH -0.2761
-2.8964 GERMAN -0.2761
-2.8964 GRILL -0.2761
-2.8964 HUNGARIAN -0.2761
-1.7970 I -0.2940
-1.7970 IN -0.2761
-2.8964 INDIAN -0.2761
-1.7970 INTERESTED -0.2940
-2.8964 INTERNATIONAL -0.2761
-2.8964 ITALIAN -0.2761
-2.8964 JAPANESE -0.2761
-2.8964 KOREAN -0.2761
-1.7970 LOOKING -0.2940
-2.8964 MALAYSIAN -0.2761
-2.0883 ME -0.2473
-1.7970 ME. -0.2512
-2.8964 MEXICAN -0.2761
-3.7415 MODERATE -0.2512
-1.6176 NEAR -0.2904
-3.7415 NO -0.2512
-3.7415 ONE -0.2512
-2.8964 PASTA -0.2761
-2.8964 PASTERIES -0.2761
-2.8964 PIZZA -0.2761
-1.7970 RESTAURANT -0.2904
-2.0980 RESTAURANT. -0.2512
-2.0980 RESTAURANTS -0.2904
-2.8964 RUSSIAN -0.2761
-2.8964 SALAD -0.2761
-2.8964 SANDWICHES -0.2761
-2.8964 SPANISH -0.2761
-2.8964 STEAK -0.2761
-2.8964 SUBS -0.2761
-2.8964 SUSHI -0.2761
-2.8964 THAI -0.2761
-3.7415 THREE -0.2512
-2.8964 TRADITIONAL -0.2761
-3.7415 TWO -0.2512
-2.8964 VEGAN -0.2761
-2.8964 VEGETARIAN -0.2761
-2.8964 WINGS -0.2761
-2.0980 WITH -0.2761
-3.7415 YES -0.2512

\2-grams:
-0.6353 </s> </s> -0.3010
-0.6021 <s> <s> -0.1761
-2.8075 <s> AMERICAN -0.1963
-3.1086 <s> ANY 0.0000
-3.1086 <s> ANYTHING 0.0000
-2.8075 <s> ASIAN -0.1963
-2.8075 <s> AUSTRALIAN -0.1963
-2.8075 <s> BAGELS -0.1963
-2.8075 <s> BAKERY -0.1963
-2.8075 <s> BARBECUE -0.1963
-2.8075 <s> BRITISH -0.1963
-2.8075 <s> BURGERS -0.1963
-2.8075 <s> CAFE -0.1963
-2.8075 <s> CALIFORNIAN -0.1963
-3.1086 <s> CHEAP 0.0000
-2.8075 <s> CHINESE -0.1963
-2.8075 <s> COFFEE -0.1963
-2.8075 <s> CONTINENTAL -0.1963
-2.8075 <s> DONUTS -0.1963
-2.8075 <s> DUTCH -0.1963
-2.8075 <s> ENGLISH -0.1963
-2.8075 <s> EUROPEAN -0.1963
-3.1086 <s> EXPENSIVE 0.0000
-2.8075 <s> FAST 0.0000
-3.1086 <s> FIVE 0.0000
-3.1086 <s> FOUR 0.0000
-2.8075 <s> FRENCH -0.1963
-2.8075 <s> GERMAN -0.1963
-2.8075 <s> GRILL -0.1963
-2.8075 <s> HUNGARIAN -0.1963
-1.1641 <s> I 0.0000
-2.8075 <s> INDIAN -0.1963
-2.8075 <s> INTERNATIONAL -0.1963
-2.8075 <s> ITALIAN -0.1963
-2.8075 <s> JAPANESE -0.1963
-2.8075 <s> KOREAN -0.1963
-1.1641 <s> LOOKING 0.0000
-2.8075 <s> MALAYSIAN -0.1963
-2.8075 <s> MEXICAN -0.1963
-3.1086 <s> MODERATE 0.0000
-3.1086 <s> NEAR -0.2205
-3.1086 <s> NO 0.0000
-3.1086 <s> ONE 0.0000
-2.8075 <s> PASTA -0.1963
-2.8075 <s> PASTERIES -0.1963
-2.8075 <s> PIZZA -0.1963
-1.4651 <s> RESTAURANTS 0.0000
-2.8075 <s> RUSSIAN -0.1963
-2.8075 <s> SALAD -0.1963
-2.8075 <s> SANDWICHES -0.1963
-2.8075 <s> SPANISH -0.1963
-2.8075 <s> STEAK -0.1963
-2.8075 <s> SUBS -0.1963
-2.8075 <s> SUSHI -0.1963
-2.8075 <s> THAI -0.1963
-3.1086 <s> THREE 0.0000
-2.8075 <s> TRADITIONAL -0.1963
-3.1086 <s> TWO 0.0000
-2.8075 <s> VEGAN -0.1963
-2.8075 <s> VEGETARIAN -0.1963
-2.8075 <s> WINGS -0.1963
-3.1086 <s> YES 0.0000
-0.3010 AM INTERESTED 0.0000
-1.1461 AMERICAN CUISINE. 0.0000
-0.8451 AMERICAN FOOD. 0.0000
-1.1461 AMERICAN FOOD.</S> 0.0000
-0.8451 AMERICAN RESTAURANT 0.0000
-1.1461 AMERICAN RESTAURANT. 0.0000
-0.3010 ANY </s> -0.1866
-0.3010 ANYTHING </s> -0.1866
-1.1461 ASIAN CUISINE. 0.0000
-0.8451 ASIAN FOOD. 0.0000
-1.1461 ASIAN FOOD.</S> 0.0000
-0.8451 ASIAN RESTAURANT 0.0000
-1.1461 ASIAN RESTAURANT. 0.0000
-1.1461 AUSTRALIAN CUISINE. 0.0000
-0.8451 AUSTRALIAN FOOD. 0.0000
-1.1461 AUSTRALIAN FOOD.</S> 0.0000
-0.8451 AUSTRALIAN RESTAURANT 0.0000
-1.1461 AUSTRALIAN RESTAURANT. 0.0000
-1.1461 BAGELS CUISINE. 0.0000
-0.8451 BAGELS FOOD. 0.0000
-1.1461 BAGELS FOOD.</S> 0.0000
-0.8451 BAGELS RESTAURANT 0.0000
-1.1461 BAGELS RESTAURANT. 0.0000
-1.1461 BAKERY CUISINE. 0.0000
-0.8451 BAKERY FOOD. 0.0000
-1.1461 BAKERY FOOD.</S> 0.0000
-0.8451 BAKERY RESTAURANT 0.0000
-1.1461 BAKERY RESTAURANT. 0.0000
-1.1461 BARBECUE CUISINE. 0.0000
-0.8451 BARBECUE FOOD. 0.0000
-1.1461 BARBECUE FOOD.</S> 0.0000
-0.8451 BARBECUE RESTAURANT 0.0000
-1.1461 BARBECUE RESTAURANT. 0.0000
-1.1461 BRITISH CUISINE. 0.0000
-0.8451 BRITISH FOOD. 0.0000
-1.1461 BRITISH FOOD.</S> 0.0000
-0.8451 BRITISH RESTAURANT 0.0000
-1.1461 BRITISH RESTAURANT. 0.0000
-1.1461 BURGERS CUISINE. 0.0000
-0.8451 BURGERS FOOD. 0.0000
-1.1461 BURGERS FOOD.</S> 0.0000
-0.8451 BURGERS RESTAURANT 0.0000
-1.1461 BURGERS RESTAURANT. 0.0000
-1.1461 CAFE CUISINE. 0.0000
-0.8451 CAFE FOOD. 0.0000
-1.1461 CAFE FOOD.</S> 0.0000
-0.8451 CAFE RESTAURANT 0.0000
-1.1461 CAFE RESTAURANT. 0.0000
-1.1461 CALIFORNIAN CUISINE. 0.0000
-0.8451 CALIFORNIAN FOOD. 0.0000
-1.1461 CALIFORNIAN FOOD.</S> 0.0000
-0.8451 CALIFORNIAN RESTAURANT 0.0000
-1.1461 CALIFORNIAN RESTAURANT. 0.0000
-0.3010 CHEAP </s> -0.1866
-1.1461 CHINESE CUISINE. 0.0000
-0.8451 CHINESE FOOD. 0.0000
-1.1461 CHINESE FOOD.</S> 0.0000
-0.8451 CHINESE RESTAURANT 0.0000
-1.1461 CHINESE RESTAURANT. 0.0000
-1.1461 COFFEE CUISINE. 0.0000
-0.8451 COFFEE FOOD. 0.0000
-1.1461 COFFEE FOOD.</S> 0.0000
-0.8451 COFFEE RESTAURANT 0.0000
-1.1461 COFFEE RESTAURANT. 0.0000
-1.1461 CONTINENTAL CUISINE. 0.0000
-0.8451 CONTINENTAL FOOD. 0.0000
-1.1461 CONTINENTAL FOOD.</S> 0.0000
-0.8451 CONTINENTAL RESTAURANT 0.0000
-1.1461 CONTINENTAL RESTAURANT. 0.0000
-0.3010 CUISINE. </s> -0.1866
-1.1461 DONUTS CUISINE. 0.0000
-0.8451 DONUTS FOOD. 0.0000
-1.1461 DONUTS FOOD.</S> 0.0000
-0.8451 DONUTS RESTAURANT 0.0000
-1.1461 DONUTS RESTAURANT. 0.0000
-1.1461 DUTCH CUISINE. 0.0000
-0.8451 DUTCH FOOD. 0.0000
-1.1461 DUTCH FOOD.</S> 0.0000
-0.8451 DUTCH RESTAURANT 0.0000
-1.1461 DUTCH RESTAURANT. 0.0000
-1.1461 ENGLISH CUISINE. 0.0000
-0.8451 ENGLISH FOOD. 0.0000
-1.1461 ENGLISH FOOD.</S> 0.0000
-0.8451 ENGLISH RESTAURANT 0.0000
-1.1461 ENGLISH RESTAURANT. 0.0000
-1.1461 EUROPEAN CUISINE. 0.0000
-0.8451 EUROPEAN FOOD. 0.0000
-1.1461 EUROPEAN FOOD.</S> 0.0000
-0.8451 EUROPEAN RESTAURANT 0.0000
-1.1461 EUROPEAN RESTAURANT. 0.0000
-0.3010 EXPENSIVE </s> -0.1866
-0.3010 FAST FOOD -0.0000
-0.3010 FIVE </s> -0.1866
-1.1461 FOOD CUISINE. 0.0000
-0.8451 FOOD FOOD. 0.0000
-1.1461 FOOD FOOD.</S> 0.0000
-0.8451 FOOD RESTAURANT 0.0000
-1.1461 FOOD RESTAURANT. 0.0000
-0.3010 FOOD. </s> -0.1866
-0.3010 FOOD.</S> </s> -0.3010
-1.9445 FOR AMERICAN -0.1963
-1.9445 FOR ASIAN -0.1963
-1.9445 FOR AUSTRALIAN -0.1963
-1.9445 FOR BAGELS -0.1963
-1.9445 FOR BAKERY -0.1963
-1.9445 FOR BARBECUE -0.1963
-1.9445 FOR BRITISH -0.1963
-1.9445 FOR BURGERS -0.1963
-1.9445 FOR CAFE -0.1963
-1.9445 FOR CALIFORNIAN -0.1963
-1.9445 FOR CHINESE -0.1963
-1.9445 FOR COFFEE -0.1963
-1.9445 FOR CONTINENTAL -0.1963
-1.9445 FOR DONUTS -0.1963
-1.9445 FOR DUTCH -0.1963
-1.9445 FOR ENGLISH -0.1963
-1.9445 FOR EUROPEAN -0.1963
-1.9445 FOR FAST 0.0000
-1.9445 FOR FRENCH -0.1963
-1.9445 FOR GERMAN -0.1963
-1.9445 FOR GRILL -0.1963
-1.9445 FOR HUNGARIAN -0.1963
-1.9445 FOR INDIAN -0.1963
-1.9445 FOR INTERNATIONAL -0.1963
-1.9445 FOR ITALIAN -0.1963
-1.9445 FOR JAPANESE -0.1963
-1.9445 FOR KOREAN -0.1963
-1.9445 FOR MALAYSIAN -0.1963
-1.9445 FOR MEXICAN -0.1963
-1.9445 FOR PASTA -0.1963
-1.9445 FOR PASTERIES -0.1963
-1.9445 FOR PIZZA -0.1963
-1.9445 FOR RUSSIAN -0.1963
-1.9445 FOR SALAD -0.1963
-1.9445 FOR SANDWICHES -0.1963
-1.9445 FOR SPANISH -0.1963
-1.9445 FOR STEAK -0.1963
-1.9445 FOR SUBS -0.1963
-1.9445 FOR SUSHI -0.1963
-1.9445 FOR THAI -0.1963
-1.9445 FOR TRADITIONAL -0.1963
-1.9445 FOR VEGAN -0.1963
-1.9445 FOR VEGETARIAN -0.1963
-1.9445 FOR WINGS -0.1963
-0.3010 FOUR </s> -0.1866
-1.1461 FRENCH CUISINE. 0.0000
-0.8451 FRENCH FOOD. 0.0000
-1.1461 FRENCH FOOD.</S> 0.0000
-0.8451 FRENCH RESTAURANT 0.0000
-1.1461 FRENCH RESTAURANT. 0.0000
-1.1461 GERMAN CUISINE. 0.0000
-0.8451 GERMAN FOOD. 0.0000
-1.1461 GERMAN FOOD.</S> 0.0000
-0.8451 GERMAN RESTAURANT 0.0000
-1.1461 GERMAN RESTAURANT. 0.0000
-1.1461 GRILL CUISINE. 0.0000
-0.8451 GRILL FOOD. 0.0000
-1.1461 GRILL FOOD.</S> 0.0000
-0.8451 GRILL RESTAURANT 0.0000
-1.1461 GRILL RESTAURANT. 0.0000
-1.1461 HUNGARIAN CUISINE. 0.0000
-0.8451 HUNGARIAN FOOD. 0.0000
-1.1461 HUNGARIAN FOOD.</S> 0.0000
-0.8451 HUNGARIAN RESTAURANT 0.0000
-1.1461 HUNGARIAN RESTAURANT. 0.0000
-0.3010 I AM 0.0000
-1.9445 IN AMERICAN -0.1549
-1.9445 IN ASIAN -0.1549
-1.9445 IN AUSTRALIAN -0.1549
-1.9445 IN BAGELS -0.1549
-1.9445 IN BAKERY -0.1549
-1.9445 IN BARBECUE -0.1549
-1.9445 IN BRITISH -0.1549
-1.9445 IN BURGERS -0.1549
-1.9445 IN CAFE -0.1549
-1.9445 IN CALIFORNIAN -0.1549
-1.9445 IN CHINESE -0.1549
-1.9445 IN COFFEE -0.1549
-1.9445 IN CONTINENTAL -0.1549
-1.9445 IN DONUTS -0.1549
-1.9445 IN DUTCH -0.1549
-1.9445 IN ENGLISH -0.1549
-1.9445 IN EUROPEAN -0.1549
-1.9445 IN FAST 0.0000
-1.9445 IN FRENCH -0.1549
-1.9445 IN GERMAN -0.1549
-1.9445 IN GRILL -0.1549
-1.9445 IN HUNGARIAN -0.1549
-1.9445 IN INDIAN -0.1549
-1.9445 IN INTERNATIONAL -0.1549
-1.9445 IN ITALIAN -0.1549
-1.9445 IN JAPANESE -0.1549
-1.9445 IN KOREAN -0.1549
-1.9445 IN MALAYSIAN -0.1549
-1.9445 IN MEXICAN -0.1549
-1.9445 IN PASTA -0.1549
-1.9445 IN PASTERIES -0.1549
-1.9445 IN PIZZA -0.1549
-1.9445 IN RUSSIAN -0.1549
-1.9445 IN SALAD -0.1549
-1.9445 IN SANDWICHES -0.1549
-1.9445 IN SPANISH -0.1549
-1.9445 IN STEAK -0.1549
-1.9445 IN SUBS -0.1549
-1.9445 IN SUSHI -0.1549
-1.9445 IN THAI -0.1549
-1.9445 IN TRADITIONAL -0.1549
-1.9445 IN VEGAN -0.1549
-1.9445 IN VEGETARIAN -0.1549
-1.9445 IN WINGS -0.1549
-1.1461 INDIAN CUISINE. 0.0000
-0.8451 INDIAN FOOD. 0.0000
-1.1461 INDIAN FOOD.</S> 0.0000
-0.8451 INDIAN RESTAURANT 0.0000
-1.1461 INDIAN RESTAURANT. 0.0000
-0.3010 INTERESTED IN -0.0000
-1.1461 INTERNATIONAL CUISINE. 0.0000
-0.8451 INTERNATIONAL FOOD. 0.0000
-1.1461 INTERNATIONAL FOOD.</S> 0.0000
-0.8451 INTERNATIONAL RESTAURANT 0.0000
-1.1461 INTERNATIONAL RESTAURANT. 0.0000
-1.1461 ITALIAN CUISINE. 0.0000
-0.8451 ITALIAN FOOD. 0.0000
-1.1461 ITALIAN FOOD.</S> 0.0000
-0.8451 ITALIAN RESTAURANT 0.0000
-1.1461 ITALIAN RESTAURANT. 0.0000
-1.1461 JAPANESE CUISINE. 0.0000
-0.8451 JAPANESE FOOD. 0.0000
-1.1461 JAPANESE FOOD.</S> 0.0000
-0.8451 JAPANESE RESTAURANT 0.0000
-1.1461 JAPANESE RESTAURANT. 0.0000
-1.1461 KOREAN CUISINE. 0.0000
-0.8451 KOREAN FOOD. 0.0000
-1.1461 KOREAN FOOD.</S> 0.0000
-0.8451 KOREAN RESTAURANT 0.0000
-1.1461 KOREAN RESTAURANT. 0.0000
-0.3010 LOOKING FOR -0.0000
-1.1461 MALAYSIAN CUISINE. 0.0000
-0.8451 MALAYSIAN FOOD. 0.0000
-1.1461 MALAYSIAN FOOD.</S> 0.0000
-0.8451 MALAYSIAN RESTAURANT 0.0000
-1.1461 MALAYSIAN RESTAURANT. 0.0000
-1.9542 ME </s> -0.1866
-0.3108 ME WITH -0.0000
-0.3010 ME. </s> -0.1866
-1.1461 MEXICAN CUISINE. 0.0000
-0.8451 MEXICAN FOOD. 0.0000
-1.1461 MEXICAN FOOD.</S> 0.0000
-0.8451 MEXICAN RESTAURANT 0.0000
-1.1461 MEXICAN RESTAURANT. 0.0000
-0.3010 MODERATE </s> -0.1866
-0.7717 NEAR ME 0.0000
-0.4804 NEAR ME. 0.0000
-0.3010 NO </s> -0.1866
-0.3010 ONE </s> -0.1866
-1.1461 PASTA CUISINE. 0.0000
-0.8451 PASTA FOOD. 0.0000
-1.1461 PASTA FOOD.</S> 0.0000
-0.8451 PASTA RESTAURANT 0.0000
-1.1461 PASTA RESTAURANT. 0.0000
-1.1461 PASTERIES CUISINE. 0.0000
-0.8451 PASTERIES FOOD. 0.0000
-1.1461 PASTERIES FOOD.</S> 0.0000
-0.8451 PASTERIES RESTAURANT 0.0000
-1.1461 PASTERIES RESTAURANT. 0.0000
-1.1461 PIZZA CUISINE. 0.0000
-0.8451 PIZZA FOOD. 0.0000
-1.1461 PIZZA FOOD.</S> 0.0000
-0.8451 PIZZA RESTAURANT 0.0000
-1.1461 PIZZA RESTAURANT. 0.0000
-0.3010 RESTAURANT NEAR -0.1266
-0.3010 RESTAURANT. </s> -0.1866
-0.3010 RESTAURANTS NEAR -0.2205
-1.1461 RUSSIAN CUISINE. 0.0000
-0.8451 RUSSIAN FOOD. 0.0000
-1.1461 RUSSIAN FOOD.</S> 0.0000
-0.8451 RUSSIAN RESTAURANT 0.0000
-1.1461 RUSSIAN RESTAURANT. 0.0000
-1.1461 SALAD CUISINE. 0.0000
-0.8451 SALAD FOOD. 0.0000
-1.1461 SALAD FOOD.</S> 0.0000
-0.8451 SALAD RESTAURANT 0.0000
-1.1461 SALAD RESTAURANT. 0.0000
-1.1461 SANDWICHES CUISINE. 0.0000
-0.8451 SANDWICHES FOOD. 0.0000
-1.1461 SANDWICHES FOOD.</S> 0.0000
-0.8451 SANDWICHES RESTAURANT 0.0000
-1.1461 SANDWICHES RESTAURANT. 0.0000
-1.1461 SPANISH CUISINE. 0.0000
-0.8451 SPANISH FOOD. 0.0000
-1.1461 SPANISH FOOD.</S> 0.0000
-0.8451 SPANISH RESTAURANT 0.0000
-1.1461 SPANISH RESTAURANT. 0.0000
-1.1461 STEAK CUISINE. 0.0000
-0.8451 STEAK FOOD. 0.0000
-1.1461 STEAK FOOD.</S> 0.0000
-0.8451 STEAK RESTAURANT 0.0000
-1.1461 STEAK RESTAURANT. 0.0000
-1.1461 SUBS CUISINE. 0.0000
-0.8451 SUBS FOOD. 0.0000
-1.1461 SUBS FOOD.</S> 0.0000
-0.8451 SUBS RESTAURANT 0.0000
-1.1461 SUBS RESTAURANT. 0.0000
-1.1461 SUSHI CUISINE. 0.0000
-0.8451 SUSHI FOOD. 0.0000
-1.1461 SUSHI FOOD.</S> 0.0000
-0.8451 SUSHI RESTAURANT 0.0000
-1.1461 SUSHI RESTAURANT. 0.0000
-1.1461 THAI CUISINE. 0.0000
-0.8451 THAI FOOD. 0.0000
-1.1461 THAI FOOD.</S> 0.0000
-0.8451 THAI RESTAURANT 0.0000
-1.1461 THAI RESTAURANT. 0.0000
-0.3010 THREE </s> -0.1866
-1.1461 TRADITIONAL CUISINE. 0.0000
-0.8451 TRADITIONAL FOOD. 0.0000
-1.1461 TRADITIONAL FOOD.</S> 0.0000
-0.8451 TRADITIONAL RESTAURANT 0.0000
-1.1461 TRADITIONAL RESTAURANT. 0.0000
-0.3010 TWO </s> -0.1866
-1.1461 VEGAN CUISINE. 0.0000
-0.8451 VEGAN FOOD. 0.0000
-1.1461 VEGAN FOOD.</S> 0.0000
-0.8451 VEGAN RESTAURANT 0.0000
-1.1461 VEGAN RESTAURANT. 0.0000
-1.1461 VEGETARIAN CUISINE. 0.0000
-0.8451 VEGETARIAN FOOD. 0.0000
-1.1461 VEGETARIAN FOOD.</S> 0.0000
-0.8451 VEGETARIAN RESTAURANT 0.0000
-1.1461 VEGETARIAN RESTAURANT. 0.0000
-1.1461 WINGS CUISINE. 0.0000
-0.8451 WINGS FOOD. 0.0000
-1.1461 WINGS FOOD.</S> 0.0000
-0.8451 WINGS RESTAURANT 0.0000
-1.1461 WINGS RESTAURANT. 0.0000
-1.9445 WITH AMERICAN -0.2688
-1.9445 WITH ASIAN -0.2688
-1.9445 WITH AUSTRALIAN -0.2688
-1.9445 WITH BAGELS -0.2688
-1.9445 WITH BAKERY -0.2688
-1.9445 WITH BARBECUE -0.2688
-1.9445 WITH BRITISH -0.2688
-1.9445 WITH BURGERS -0.2688
-1.9445 WITH CAFE -0.2688
-1.9445 WITH CALIFORNIAN -0.2688
-1.9445 WITH CHINESE -0.2688
-1.9445 WITH COFFEE -0.2688
-1.9445 WITH CONTINENTAL -0.2688
-1.9445 WITH DONUTS -0.2688
-1.9445 WITH DUTCH -0.2688
-1.9445 WITH ENGLISH -0.2688
-1.9445 WITH EUROPEAN -0.2688
-1.9445 WITH FAST 0.0000
-1.9445 WITH FRENCH -0.2688
-1.9445 WITH GERMAN -0.2688
-1.9445 WITH GRILL -0.2688
-1.9445 WITH HUNGARIAN -0.2688
-1.9445 WITH INDIAN -0.2688
-1.9445 WITH INTERNATIONAL -0.2688
-1.9445 WITH ITALIAN -0.2688
-1.9445 WITH JAPANESE -0.2688
-1.9445 WITH KOREAN -0.2688
-1.9445 WITH MALAYSIAN -0.2688
-1.9445 WITH MEXICAN -0.2688
-1.9445 WITH PASTA -0.2688
-1.9445 WITH PASTERIES -0.2688
-1.9445 WITH PIZZA -0.2688
-1.9445 WITH RUSSIAN -0.2688
-1.9445 WITH SALAD -0.2688
-1.9445 WITH SANDWICHES -0.2688
-1.9445 WITH SPANISH -0.2688
-1.9445 WITH STEAK -0.2688
-1.9445 WITH SUBS -0.2688
-1.9445 WITH SUSHI -0.2688
-1.9445 WITH THAI -0.2688
-1.9445 WITH TRADITIONAL -0.2688
-1.9445 WITH VEGAN -0.2688
-1.9445 WITH VEGETARIAN -0.2688
-1.9445 WITH WINGS -0.2688
-0.3010 YES </s> -0.1866

\3-grams:
-2.5065 <s> <s> AMERICAN
-2.8075 <s> <s> ANY
-2.8075 <s> <s> ANYTHING
-2.5065 <s> <s> ASIAN
-2.5065 <s> <s> AUSTRALIAN
-2.5065 <s> <s> BAGELS
-2.5065 <s> <s> BAKERY
-2.5065 <s> <s> BARBECUE
-2.5065 <s> <s> BRITISH
-2.5065 <s> <s> BURGERS
-2.5065 <s> <s> CAFE
-2.5065 <s> <s> CALIFORNIAN
-2.8075 <s> <s> CHEAP
-2.5065 <s> <s> CHINESE
-2.5065 <s> <s> COFFEE
-2.5065 <s> <s> CONTINENTAL
-2.5065 <s> <s> DONUTS
-2.5065 <s> <s> DUTCH
-2.5065 <s> <s> ENGLISH
-2.5065 <s> <s> EUROPEAN
-2.8075 <s> <s> EXPENSIVE
-2.5065 <s> <s> FAST
-2.8075 <s> <s> FIVE
-2.8075 <s> <s> FOUR
-2.5065 <s> <s> FRENCH
-2.5065 <s> <s> GERMAN
-2.5065 <s> <s> GRILL
-2.5065 <s> <s> HUNGARIAN
-0.8631 <s> <s> I
-2.5065 <s> <s> INDIAN
-2.5065 <s> <s> INTERNATIONAL
-2.5065 <s> <s> ITALIAN
-2.5065 <s> <s> JAPANESE
-2.5065 <s> <s> KOREAN
-0.8631 <s> <s> LOOKING
-2.5065 <s> <s> MALAYSIAN
-2.5065 <s> <s> MEXICAN
-2.8075 <s> <s> MODERATE
-2.8075 <s> <s> NEAR
-2.8075 <s> <s> NO
-2.8075 <s> <s> ONE
-2.5065 <s> <s> PASTA
-2.5065 <s> <s> PASTERIES
-2.5065 <s> <s> PIZZA
-1.1641 <s> <s> RESTAURANTS
-2.5065 <s> <s> RUSSIAN
-2.5065 <s> <s> SALAD
-2.5065 <s> <s> SANDWICHES
-2.5065 <s> <s> SPANISH
-2.5065 <s> <s> STEAK
-2.5065 <s> <s> SUBS
-2.5065 <s> <s> SUSHI
-2.5065 <s> <s> THAI
-2.8075 <s> <s> THREE
-2.5065 <s> <s> TRADITIONAL
-2.8075 <s> <s> TWO
-2.5065 <s> <s> VEGAN
-2.5065 <s> <s> VEGETARIAN
-2.5065 <s> <s> WINGS
-2.8075 <s> <s> YES
-0.6021 <s> AMERICAN FOOD.
-0.6021 <s> AMERICAN RESTAURANT.
-0.3010 <s> ANY </s>
-0.3010 <s> ANYTHING </s>
-0.6021 <s> ASIAN FOOD.
-0.6021 <s> ASIAN RESTAURANT.
-0.6021 <s> AUSTRALIAN FOOD.
-0.6021 <s> AUSTRALIAN RESTAURANT.
-0.6021 <s> BAGELS FOOD.
-0.6021 <s> BAGELS RESTAURANT.
-0.6021 <s> BAKERY FOOD.
-0.6021 <s> BAKERY RESTAURANT.
-0.6021 <s> BARBECUE FOOD.
-0.6021 <s> BARBECUE RESTAURANT.
-0.6021 <s> BRITISH FOOD.
-0.6021 <s> BRITISH RESTAURANT.
-0.6021 <s> BURGERS FOOD.
-0.6021 <s> BURGERS RESTAURANT.
-0.6021 <s> CAFE FOOD.
-0.6021 <s> CAFE RESTAURANT.
-0.6021 <s> CALIFORNIAN FOOD.
-0.6021 <s> CALIFORNIAN RESTAURANT.
-0.3010 <s> CHEAP </s>
-0.6021 <s> CHINESE FOOD.
-0.6021 <s> CHINESE RESTAURANT.
-0.6021 <s> COFFEE FOOD.
-0.6021 <s> COFFEE RESTAURANT.
-0.6021 <s> CONTINENTAL FOOD.
-0.6021 <s> CONTINENTAL RESTAURANT.
-0.6021 <s> DONUTS FOOD.
-0.6021 <s> DONUTS RESTAURANT.
-0.6021 <s> DUTCH FOOD.
-0.6021 <s> DUTCH RESTAURANT.
-0.6021 <s> ENGLISH FOOD.
-0.6021 <s> ENGLISH RESTAURANT.
-0.6021 <s> EUROPEAN FOOD.
-0.6021 <s> EUROPEAN RESTAURANT.
-0.3010 <s> EXPENSIVE </s>
-0.3010 <s> FAST FOOD
-0.3010 <s> FIVE </s>
-0.3010 <s> FOUR </s>
-0.6021 <s> FRENCH FOOD.
-0.6021 <s> FRENCH RESTAURANT.
-0.6021 <s> GERMAN FOOD.
-0.6021 <s> GERMAN RESTAURANT.
-0.6021 <s> GRILL FOOD.
-0.6021 <s> GRILL RESTAURANT.
-0.6021 <s> HUNGARIAN FOOD.
-0.6021 <s> HUNGARIAN RESTAURANT.
-0.3010 <s> I AM
-0.6021 <s> INDIAN FOOD.
-0.6021 <s> INDIAN RESTAURANT.
-0.6021 <s> INTERNATIONAL FOOD.
-0.6021 <s> INTERNATIONAL RESTAURANT.
-0.6021 <s> ITALIAN FOOD.
-0.6021 <s> ITALIAN RESTAURANT.
-0.6021 <s> JAPANESE FOOD.
-0.6021 <s> JAPANESE RESTAURANT.
-0.6021 <s> KOREAN FOOD.
-0.6021 <s> KOREAN RESTAURANT.
-0.3010 <s> LOOKING FOR
-0.6021 <s> MALAYSIAN FOOD.
-0.6021 <s> MALAYSIAN RESTAURANT.
-0.6021 <s> MEXICAN FOOD.
-0.6021 <s> MEXICAN RESTAURANT.
-0.3010 <s> MODERATE </s>
-0.3010 <s> NEAR ME
-0.3010 <s> NO </s>
-0.3010 <s> ONE </s>
-0.6021 <s> PASTA FOOD.
-0.6021 <s> PASTA RESTAURANT.
-0.6021 <s> PASTERIES FOOD.
-0.6021 <s> PASTERIES RESTAURANT.
-0.6021 <s> PIZZA FOOD.
-0.6021 <s> PIZZA RESTAURANT.
-0.3010 <s> RESTAURANTS NEAR
-0.6021 <s> RUSSIAN FOOD.
-0.6021 <s> RUSSIAN RESTAURANT.
-0.6021 <s> SALAD FOOD.
-0.6021 <s> SALAD RESTAURANT.
-0.6021 <s> SANDWICHES FOOD.
-0.6021 <s> SANDWICHES RESTAURANT.
-0.6021 <s> SPANISH FOOD.
-0.6021 <s> SPANISH RESTAURANT.
-0.6021 <s> STEAK FOOD.
-0.6021 <s> STEAK RESTAURANT.
-0.6021 <s> SUBS FOOD.
-0.6021 <s> SUBS RESTAURANT.
-0.6021 <s> SUSHI FOOD.
-0.6021 <s> SUSHI RESTAURANT.
-0.6021 <s> THAI FOOD.
-0.6021 <s> THAI RESTAURANT.
-0.3010 <s> THREE </s>
-0.6021 <s> TRADITIONAL FOOD.
-0.6021 <s> TRADITIONAL RESTAURANT.
-0.3010 <s> TWO </s>
-0.6021 <s> VEGAN FOOD.
-0.6021 <s> VEGAN RESTAURANT.
-0.6021 <s> VEGETARIAN FOOD.
-0.6021 <s> VEGETARIAN RESTAURANT.
-0.6021 <s> WINGS FOOD.
-0.6021 <s> WINGS RESTAURANT.
-0.3010 <s> YES </s>
-0.3010 AM INTERESTED IN
-0.3010 AMERICAN CUISINE. </s>
-0.3010 AMERICAN FOOD. </s>
-0.3010 AMERICAN FOOD.</S> </s>
-0.3010 AMERICAN RESTAURANT NEAR
-0.3010 AMERICAN RESTAURANT. </s>
-0.3010 ANY </s> </s>
-0.3010 ANYTHING </s> </s>
-0.3010 ASIAN CUISINE. </s>
-0.3010 ASIAN FOOD. </s>
-0.3010 ASIAN FOOD.</S> </s>
-0.3010 ASIAN RESTAURANT NEAR
-0.3010 ASIAN RESTAURANT. </s>
-0.3010 AUSTRALIAN CUISINE. </s>
-0.3010 AUSTRALIAN FOOD. </s>
-0.3010 AUSTRALIAN FOOD.</S> </s>
-0.3010 AUSTRALIAN RESTAURANT NEAR
-0.3010 AUSTRALIAN RESTAURANT. </s>
-0.3010 BAGELS CUISINE. </s>
-0.3010 BAGELS FOOD. </s>
-0.3010 BAGELS FOOD.</S> </s>
-0.3010 BAGELS RESTAURANT NEAR
-0.3010 BAGELS RESTAURANT. </s>
-0.3010 BAKERY CUISINE. </s>
-0.3010 BAKERY FOOD. </s>
-0.3010 BAKERY FOOD.</S> </s>
-0.3010 BAKERY RESTAURANT NEAR
-0.3010 BAKERY RESTAURANT. </s>
-0.3010 BARBECUE CUISINE. </s>
-0.3010 BARBECUE FOOD. </s>
-0.3010 BARBECUE FOOD.</S> </s>
-0.3010 BARBECUE RESTAURANT NEAR
-0.3010 BARBECUE RESTAURANT. </s>
-0.3010 BRITISH CUISINE. </s>
-0.3010 BRITISH FOOD. </s>
-0.3010 BRITISH FOOD.</S> </s>
-0.3010 BRITISH RESTAURANT NEAR
-0.3010 BRITISH RESTAURANT. </s>
-0.3010 BURGERS CUISINE. </s>
-0.3010 BURGERS FOOD. </s>
-0.3010 BURGERS FOOD.</S> </s>
-0.3010 BURGERS RESTAURANT NEAR
-0.3010 BURGERS RESTAURANT. </s>
-0.3010 CAFE CUISINE. </s>
-0.3010 CAFE FOOD. </s>
-0.3010 CAFE FOOD.</S> </s>
-0.3010 CAFE RESTAURANT NEAR
-0.3010 CAFE RESTAURANT. </s>
-0.3010 CALIFORNIAN CUISINE. </s>
-0.3010 CALIFORNIAN FOOD. </s>
-0.3010 CALIFORNIAN FOOD.</S> </s>
-0.3010 CALIFORNIAN RESTAURANT NEAR
-0.3010 CALIFORNIAN RESTAURANT. </s>
-0.3010 CHEAP </s> </s>
-0.3010 CHINESE CUISINE. </s>
-0.3010 CHINESE FOOD. </s>
-0.3010 CHINESE FOOD.</S> </s>
-0.3010 CHINESE RESTAURANT NEAR
-0.3010 CHINESE RESTAURANT. </s>
-0.3010 COFFEE CUISINE. </s>
-0.3010 COFFEE FOOD. </s>
-0.3010 COFFEE FOOD.</S> </s>
-0.3010 COFFEE RESTAURANT NEAR
-0.3010 COFFEE RESTAURANT. </s>
-0.3010 CONTINENTAL CUISINE. </s>
-0.3010 CONTINENTAL FOOD. </s>
-0.3010 CONTINENTAL FOOD.</S> </s>
-0.3010 CONTINENTAL RESTAURANT NEAR
-0.3010 CONTINENTAL RESTAURANT. </s>
-0.3010 CUISINE. </s> </s>
-0.3010 DONUTS CUISINE. </s>
-0.3010 DONUTS FOOD. </s>
-0.3010 DONUTS FOOD.</S> </s>
-0.3010 DONUTS RESTAURANT NEAR
-0.3010 DONUTS RESTAURANT. </s>
-0.3010 DUTCH CUISINE. </s>
-0.3010 DUTCH FOOD. </s>
-0.3010 DUTCH FOOD.</S> </s>
-0.3010 DUTCH RESTAURANT NEAR
-0.3010 DUTCH RESTAURANT. </s>
-0.3010 ENGLISH CUISINE. </s>
-0.3010 ENGLISH FOOD. </s>
-0.3010 ENGLISH FOOD.</S> </s>
-0.3010 ENGLISH RESTAURANT NEAR
-0.3010 ENGLISH RESTAURANT. </s>
-0.3010 EUROPEAN CUISINE. </s>
-0.3010 EUROPEAN FOOD. </s>
-0.3010 EUROPEAN FOOD.</S> </s>
-0.3010 EUROPEAN RESTAURANT NEAR
-0.3010 EUROPEAN RESTAURANT. </s>
-0.3010 EXPENSIVE </s> </s>
-1.1461 FAST FOOD CUISINE.
-0.8451 FAST FOOD FOOD.
-1.1461 FAST FOOD FOOD.</S>
-0.8451 FAST FOOD RESTAURANT
-1.1461 FAST FOOD RESTAURANT.
-0.3010 FIVE </s> </s>
-0.3010 FOOD CUISINE. </s>
-0.3010 FOOD FOOD. </s>
-0.3010 FOOD FOOD.</S> </s>
-0.3010 FOOD RESTAURANT NEAR
-0.3010 FOOD RESTAURANT. </s>
-0.3010 FOOD. </s> </s>
-0.6021 FOR AMERICAN FOOD.</S>
-0.6021 FOR AMERICAN RESTAURANT
-0.6021 FOR ASIAN FOOD.</S>
-0.6021 FOR ASIAN RESTAURANT
-0.6021 FOR AUSTRALIAN FOOD.</S>
-0.6021 FOR AUSTRALIAN RESTAURANT
-0.6021 FOR BAGELS FOOD.</S>
-0.6021 FOR BAGELS RESTAURANT
-0.6021 FOR BAKERY FOOD.</S>
-0.6021 FOR BAKERY RESTAURANT
-0.6021 FOR BARBECUE FOOD.</S>
-0.6021 FOR BARBECUE RESTAURANT
-0.6021 FOR BRITISH FOOD.</S>
-0.6021 FOR BRITISH RESTAURANT
-0.6021 FOR BURGERS FOOD.</S>
-0.6021 FOR BURGERS RESTAURANT
-0.6021 FOR CAFE FOOD.</S>
-0.6021 FOR CAFE RESTAURANT
-0.6021 FOR CALIFORNIAN FOOD.</S>
-0.6021 FOR CALIFORNIAN RESTAURANT
-0.6021 FOR CHINESE FOOD.</S>
-0.6021 FOR CHINESE RESTAURANT
-0.6021 FOR COFFEE FOOD.</S>
-0.6021 FOR COFFEE RESTAURANT
-0.6021 FOR CONTINENTAL FOOD.</S>
-0.6021 FOR CONTINENTAL RESTAURANT
-0.6021 FOR DONUTS FOOD.</S>
-0.6021 FOR DONUTS RESTAURANT
-0.6021 FOR DUTCH FOOD.</S>
-0.6021 FOR DUTCH RESTAURANT
-0.6021 FOR ENGLISH FOOD.</S>
-0.6021 FOR ENGLISH RESTAURANT
-0.6021 FOR EUROPEAN FOOD.</S>
-0.6021 FOR EUROPEAN RESTAURANT
-0.3010 FOR FAST FOOD
-0.6021 FOR FRENCH FOOD.</S>
-0.6021 FOR FRENCH RESTAURANT
-0.6021 FOR GERMAN FOOD.</S>
-0.6021 FOR GERMAN RESTAURANT
-0.6021 FOR GRILL FOOD.</S>
-0.6021 FOR GRILL RESTAURANT
-0.6021 FOR HUNGARIAN FOOD.</S>
-0.6021 FOR HUNGARIAN RESTAURANT
-0.6021 FOR INDIAN FOOD.</S>
-0.6021 FOR INDIAN RESTAURANT
-0.6021 FOR INTERNATIONAL FOOD.</S>
-0.6021 FOR INTERNATIONAL RESTAURANT
-0.6021 FOR ITALIAN FOOD.</S>
-0.6021 FOR ITALIAN RESTAURANT
-0.6021 FOR JAPANESE FOOD.</S>
-0.6021 FOR JAPANESE RESTAURANT
-0.6021 FOR KOREAN FOOD.</S>
-0.6021 FOR KOREAN RESTAURANT
-0.6021 FOR MALAYSIAN FOOD.</S>
-0.6021 FOR MALAYSIAN RESTAURANT
-0.6021 FOR MEXICAN FOOD.</S>
-0.6021 FOR MEXICAN RESTAURANT
-0.6021 FOR PASTA FOOD.</S>
-0.6021 FOR PASTA RESTAURANT
-0.6021 FOR PASTERIES FOOD.</S>
-0.6021 FOR PASTERIES RESTAURANT
-0.6021 FOR PIZZA FOOD.</S>
-0.6021 FOR PIZZA RESTAURANT
-0.6021 FOR RUSSIAN FOOD.</S>
-0.6021 FOR RUSSIAN RESTAURANT
-0.6021 FOR SALAD FOOD.</S>
-0.6021 FOR SALAD RESTAURANT
-0.6021 FOR SANDWICHES FOOD.</S>
-0.6021 FOR SANDWICHES RESTAURANT
-0.6021 FOR SPANISH FOOD.</S>
-0.6021 FOR SPANISH RESTAURANT
-0.6021 FOR STEAK FOOD.</S>
-0.6021 FOR STEAK RESTAURANT
-0.6021 FOR SUBS FOOD.</S>
-0.6021 FOR SUBS RESTAURANT
-0.6021 FOR SUSHI FOOD.</S>
-0.6021 FOR SUSHI RESTAURANT
-0.6021 FOR THAI FOOD.</S>
-0.6021 FOR THAI RESTAURANT
-0.6021 FOR TRADITIONAL FOOD.</S>
-0.6021 FOR TRADITIONAL RESTAURANT
-0.6021 FOR VEGAN FOOD.</S>
-0.6021 FOR VEGAN RESTAURANT
-0.6021 FOR VEGETARIAN FOOD.</S>
-0.6021 FOR VEGETARIAN RESTAURANT
-0.6021 FOR WINGS FOOD.</S>
-0.6021 FOR WINGS RESTAURANT
-0.3010 FOUR </s> </s>
-0.3010 FRENCH CUISINE. </s>
-0.3010 FRENCH FOOD. </s>
-0.3010 FRENCH FOOD.</S> </s>
-0.3010 FRENCH RESTAURANT NEAR
-0.3010 FRENCH RESTAURANT. </s>
-0.3010 GERMAN CUISINE. </s>
-0.3010 GERMAN FOOD. </s>
-0.3010 GERMAN FOOD.</S> </s>
-0.3010 GERMAN RESTAURANT NEAR
-0.3010 GERMAN RESTAURANT. </s>
-0.3010 GRILL CUISINE. </s>
-0.3010 GRILL FOOD. </s>
-0.3010 GRILL FOOD.</S> </s>
-0.3010 GRILL RESTAURANT NEAR
-0.3010 GRILL RESTAURANT. </s>
-0.3010 HUNGARIAN CUISINE. </s>
-0.3010 HUNGARIAN FOOD. </s>
-0.3010 HUNGARIAN FOOD.</S> </s>
-0.3010 HUNGARIAN RESTAURANT NEAR
-0.3010 HUNGARIAN RESTAURANT. </s>
-0.3010 I AM INTERESTED
-0.6021 IN AMERICAN FOOD.
-0.6021 IN AMERICAN RESTAURANT
-0.6021 IN ASIAN FOOD.
-0.6021 IN ASIAN RESTAURANT
-0.6021 IN AUSTRALIAN FOOD.
-0.6021 IN AUSTRALIAN RESTAURANT
-0.6021 IN BAGELS FOOD.
-0.6021 IN BAGELS RESTAURANT
-0.6021 IN BAKERY FOOD.
-0.6021 IN BAKERY RESTAURANT
-0.6021 IN BARBECUE FOOD.
-0.6021 IN BARBECUE RESTAURANT
-0.6021 IN BRITISH FOOD.
-0.6021 IN BRITISH RESTAURANT
-0.6021 IN BURGERS FOOD.
-0.6021 IN BURGERS RESTAURANT
-0.6021 IN CAFE FOOD.
-0.6021 IN CAFE RESTAURANT
-0.6021 IN CALIFORNIAN FOOD.
-0.6021 IN CALIFORNIAN RESTAURANT
-0.6021 IN CHINESE FOOD.
-0.6021 IN CHINESE RESTAURANT
-0.6021 IN COFFEE FOOD.
-0.6021 IN COFFEE RESTAURANT
-0.6021 IN CONTINENTAL FOOD.
-0.6021 IN CONTINENTAL RESTAURANT
-0.6021 IN DONUTS FOOD.
-0.6021 IN DONUTS RESTAURANT
-0.6021 IN DUTCH FOOD.
-0.6021 IN DUTCH RESTAURANT
-0.6021 IN ENGLISH FOOD.
-0.6021 IN ENGLISH RESTAURANT
-0.6021 IN EUROPEAN FOOD.
-0.6021 IN EUROPEAN RESTAURANT
-0.3010 IN FAST FOOD
-0.6021 IN FRENCH FOOD.
-0.6021 IN FRENCH RESTAURANT
-0.6021 IN GERMAN FOOD.
-0.6021 IN GERMAN RESTAURANT
-0.6021 IN GRILL FOOD.
-0.6021 IN GRILL RESTAURANT
-0.6021 IN HUNGARIAN FOOD.
-0.6021 IN HUNGARIAN RESTAURANT
-0.6021 IN INDIAN FOOD.
-0.6021 IN INDIAN RESTAURANT
-0.6021 IN INTERNATIONAL FOOD.
-0.6021 IN INTERNATIONAL RESTAURANT
-0.6021 IN ITALIAN FOOD.
-0.6021 IN ITALIAN RESTAURANT
-0.6021 IN JAPANESE FOOD.
-0.6021 IN JAPANESE RESTAURANT
-0.6021 IN KOREAN FOOD.
-0.6021 IN KOREAN RESTAURANT
-0.6021 IN MALAYSIAN FOOD.
-0.6021 IN MALAYSIAN RESTAURANT
-0.6021 IN MEXICAN FOOD.
-0.6021 IN MEXICAN RESTAURANT
-0.6021 IN PASTA FOOD.
-0.6021 IN PASTA RESTAURANT
-0.6021 IN PASTERIES FOOD.
-0.6021 IN PASTERIES RESTAURANT
-0.6021 IN PIZZA FOOD.
-0.6021 IN PIZZA RESTAURANT
-0.6021 IN RUSSIAN FOOD.
-0.6021 IN RUSSIAN RESTAURANT
-0.6021 IN SALAD FOOD.
-0.6021 IN SALAD RESTAURANT
-0.6021 IN SANDWICHES FOOD.
-0.6021 IN SANDWICHES RESTAURANT
-0.6021 IN SPANISH FOOD.
-0.6021 IN SPANISH RESTAURANT
-0.6021 IN STEAK FOOD.
-0.6021 IN STEAK RESTAURANT
-0.6021 IN SUBS FOOD.
-0.6021 IN SUBS RESTAURANT
-0.6021 IN SUSHI FOOD.
-0.6021 IN SUSHI RESTAURANT
-0.6021 IN THAI FOOD.
-0.6021 IN THAI RESTAURANT
-0.6021 IN TRADITIONAL FOOD.
-0.6021 IN TRADITIONAL RESTAURANT
-0.6021 IN VEGAN FOOD.
-0.6021 IN VEGAN RESTAURANT
-0.6021 IN VEGETARIAN FOOD.
-0.6021 IN VEGETARIAN RESTAURANT
-0.6021 IN WINGS FOOD.
-0.6021 IN WINGS RESTAURANT
-0.3010 INDIAN CUISINE. </s>
-0.3010 INDIAN FOOD. </s>
-0.3010 INDIAN FOOD.</S> </s>
-0.3010 INDIAN RESTAURANT NEAR
-0.3010 INDIAN RESTAURANT. </s>
-1.9445 INTERESTED IN AMERICAN
-1.9445 INTERESTED IN ASIAN
-1.9445 INTERESTED IN AUSTRALIAN
-1.9445 INTERESTED IN BAGELS
-1.9445 INTERESTED IN BAKERY
-1.9445 INTERESTED IN BARBECUE
-1.9445 INTERESTED IN BRITISH
-1.9445 INTERESTED IN BURGERS
-1.9445 INTERESTED IN CAFE
-1.9445 INTERESTED IN CALIFORNIAN
-1.9445 INTERESTED IN CHINESE
-1.9445 INTERESTED IN COFFEE
-1.9445 INTERESTED IN CONTINENTAL
-1.9445 INTERESTED IN DONUTS
-1.9445 INTERESTED IN DUTCH
-1.9445 INTERESTED IN ENGLISH
-1.9445 INTERESTED IN EUROPEAN
-1.9445 INTERESTED IN FAST
-1.9445 INTERESTED IN FRENCH
-1.9445 INTERESTED IN GERMAN
-1.9445 INTERESTED IN GRILL
-1.9445 INTERESTED IN HUNGARIAN
-1.9445 INTERESTED IN INDIAN
-1.9445 INTERESTED IN INTERNATIONAL
-1.9445 INTERESTED IN ITALIAN
-1.9445 INTERESTED IN JAPANESE
-1.9445 INTERESTED IN KOREAN
-1.9445 INTERESTED IN MALAYSIAN
-1.9445 INTERESTED IN MEXICAN
-1.9445 INTERESTED IN PASTA
-1.9445 INTERESTED IN PASTERIES
-1.9445 INTERESTED IN PIZZA
-1.9445 INTERESTED IN RUSSIAN
-1.9445 INTERESTED IN SALAD
-1.9445 INTERESTED IN SANDWICHES
-1.9445 INTERESTED IN SPANISH
-1.9445 INTERESTED IN STEAK
-1.9445 INTERESTED IN SUBS
-1.9445 INTERESTED IN SUSHI
-1.9445 INTERESTED IN THAI
-1.9445 INTERESTED IN TRADITIONAL
-1.9445 INTERESTED IN VEGAN
-1.9445 INTERESTED IN VEGETARIAN
-1.9445 INTERESTED IN WINGS
-0.3010 INTERNATIONAL CUISINE. </s>
-0.3010 INTERNATIONAL FOOD. </s>
-0.3010 INTERNATIONAL FOOD.</S> </s>
-0.3010 INTERNATIONAL RESTAURANT NEAR
-0.3010 INTERNATIONAL RESTAURANT. </s>
-0.3010 ITALIAN CUISINE. </s>
-0.3010 ITALIAN FOOD. </s>
-0.3010 ITALIAN FOOD.</S> </s>
-0.3010 ITALIAN RESTAURANT NEAR
-0.3010 ITALIAN RESTAURANT. </s>
-0.3010 JAPANESE CUISINE. </s>
-0.3010 JAPANESE FOOD. </s>
-0.3010 JAPANESE FOOD.</S> </s>
-0.3010 JAPANESE RESTAURANT NEAR
-0.3010 JAPANESE RESTAURANT. </s>
-0.3010 KOREAN CUISINE. </s>
-0.3010 KOREAN FOOD. </s>
-0.3010 KOREAN FOOD.</S> </s>
-0.3010 KOREAN RESTAURANT NEAR
-0.3010 KOREAN RESTAURANT. </s>
-1.9445 LOOKING FOR AMERICAN
-1.9445 LOOKING FOR ASIAN
-1.9445 LOOKING FOR AUSTRALIAN
-1.9445 LOOKING FOR BAGELS
-1.9445 LOOKING FOR BAKERY
-1.9445 LOOKING FOR BARBECUE
-1.9445 LOOKING FOR BRITISH
-1.9445 LOOKING FOR BURGERS
-1.9445 LOOKING FOR CAFE
-1.9445 LOOKING FOR CALIFORNIAN
-1.9445 LOOKING FOR CHINESE
-1.9445 LOOKING FOR COFFEE
-1.9445 LOOKING FOR CONTINENTAL
-1.9445 LOOKING FOR DONUTS
-1.9445 LOOKING FOR DUTCH
-1.9445 LOOKING FOR ENGLISH
-1.9445 LOOKING FOR EUROPEAN
-1.9445 LOOKING FOR FAST
-1.9445 LOOKING FOR FRENCH
-1.9445 LOOKING FOR GERMAN
-1.9445 LOOKING FOR GRILL
-1.9445 LOOKING FOR HUNGARIAN
-1.9445 LOOKING FOR INDIAN
-1.9445 LOOKING FOR INTERNATIONAL
-1.9445 LOOKING FOR ITALIAN
-1.9445 LOOKING FOR JAPANESE
-1.9445 LOOKING FOR KOREAN
-1.9445 LOOKING FOR MALAYSIAN
-1.9445 LOOKING FOR MEXICAN
-1.9445 LOOKING FOR PASTA
-1.9445 LOOKING FOR PASTERIES
-1.9445 LOOKING FOR PIZZA
-1.9445 LOOKING FOR RUSSIAN
-1.9445 LOOKING FOR SALAD
-1.9445 LOOKING FOR SANDWICHES
-1.9445 LOOKING FOR SPANISH
-1.9445 LOOKING FOR STEAK
-1.9445 LOOKING FOR SUBS
-1.9445 LOOKING FOR SUSHI
-1.9445 LOOKING FOR THAI
-1.9445 LOOKING FOR TRADITIONAL
-1.9445 LOOKING FOR VEGAN
-1.9445 LOOKING FOR VEGETARIAN
-1.9445 LOOKING FOR WINGS
-0.3010 MALAYSIAN CUISINE. </s>
-0.3010 MALAYSIAN FOOD. </s>
-0.3010 MALAYSIAN FOOD.</S> </s>
-0.3010 MALAYSIAN RESTAURANT NEAR
-0.3010 MALAYSIAN RESTAURANT. </s>
-0.3010 ME </s> </s>
-1.9445 ME WITH AMERICAN
-1.9445 ME WITH ASIAN
-1.9445 ME WITH AUSTRALIAN
-1.9445 ME WITH BAGELS
-1.9445 ME WITH BAKERY
-1.9445 ME WITH BARBECUE
-1.9445 ME WITH BRITISH
-1.9445 ME WITH BURGERS
-1.9445 ME WITH CAFE
-1.9445 ME WITH CALIFORNIAN
-1.9445 ME WITH CHINESE
-1.9445 ME WITH COFFEE
-1.9445 ME WITH CONTINENTAL
-1.9445 ME WITH DONUTS
-1.9445 ME WITH DUTCH
-1.9445 ME WITH ENGLISH
-1.9445 ME WITH EUROPEAN
-1.9445 ME WITH FAST
-1.9445 ME WITH FRENCH
-1.9445 ME WITH GERMAN
-1.9445 ME WITH GRILL
-1.9445 ME WITH HUNGARIAN
-1.9445 ME WITH INDIAN
-1.9445 ME WITH INTERNATIONAL
-1.9445 ME WITH ITALIAN
-1.9445 ME WITH JAPANESE
-1.9445 ME WITH KOREAN
-1.9445 ME WITH MALAYSIAN
-1.9445 ME WITH MEXICAN
-1.9445 ME WITH PASTA
-1.9445 ME WITH PASTERIES
-1.9445 ME WITH PIZZA
-1.9445 ME WITH RUSSIAN
-1.9445 ME WITH SALAD
-1.9445 ME WITH SANDWICHES
-1.9445 ME WITH SPANISH
-1.9445 ME WITH STEAK
-1.9445 ME WITH SUBS
-1.9445 ME WITH SUSHI
-1.9445 ME WITH THAI
-1.9445 ME WITH TRADITIONAL
-1.9445 ME WITH VEGAN
-1.9445 ME WITH VEGETARIAN
-1.9445 ME WITH WINGS
-0.3010 ME. </s> </s>
-0.3010 MEXICAN CUISINE. </s>
-0.3010 MEXICAN FOOD. </s>
-0.3010 MEXICAN FOOD.</S> </s>
-0.3010 MEXICAN RESTAURANT NEAR
-0.3010 MEXICAN RESTAURANT. </s>
-0.3010 MODERATE </s> </s>
-1.9542 NEAR ME </s>
-0.3108 NEAR ME WITH
-0.3010 NEAR ME. </s>
-0.3010 NO </s> </s>
-0.3010 ONE </s> </s>
-0.3010 PASTA CUISINE. </s>
-0.3010 PASTA FOOD. </s>
-0.3010 PASTA FOOD.</S> </s>
-0.3010 PASTA RESTAURANT NEAR
-0.3010 PASTA RESTAURANT. </s>
-0.3010 PASTERIES CUISINE. </s>
-0.3010 PASTERIES FOOD. </s>
-0.3010 PASTERIES FOOD.</S> </s>
-0.3010 PASTERIES RESTAURANT NEAR
-0.3010 PASTERIES RESTAURANT. </s>
-0.3010 PIZZA CUISINE. </s>
-0.3010 PIZZA FOOD. </s>
-0.3010 PIZZA FOOD.</S> </s>
-0.3010 PIZZA RESTAURANT NEAR
-0.3010 PIZZA RESTAURANT. </s>
-0.3010 RESTAURANT NEAR ME.
-0.3010 RESTAURANT. </s> </s>
-0.3010 RESTAURANTS NEAR ME
-0.3010 RUSSIAN CUISINE. </s>
-0.3010 RUSSIAN FOOD. </s>
-0.3010 RUSSIAN FOOD.</S> </s>
-0.3010 RUSSIAN RESTAURANT NEAR
-0.3010 RUSSIAN RESTAURANT. </s>
-0.3010 SALAD CUISINE. </s>
-0.3010 SALAD FOOD. </s>
-0.3010 SALAD FOOD.</S> </s>
-0.3010 SALAD RESTAURANT NEAR
-0.3010 SALAD RESTAURANT. </s>
-0.3010 SANDWICHES CUISINE. </s>
-0.3010 SANDWICHES FOOD. </s>
-0.3010 SANDWICHES FOOD.</S> </s>
-0.3010 SANDWICHES RESTAURANT NEAR
-0.3010 SANDWICHES RESTAURANT. </s>
-0.3010 SPANISH CUISINE. </s>
-0.3010 SPANISH FOOD. </s>
-0.3010 SPANISH FOOD.</S> </s>
-0.3010 SPANISH RESTAURANT NEAR
-0.3010 SPANISH RESTAURANT. </s>
-0.3010 STEAK CUISINE. </s>
-0.3010 STEAK FOOD. </s>
-0.3010 STEAK FOOD.</S> </s>
-0.3010 STEAK RESTAURANT NEAR
-0.3010 STEAK RESTAURANT. </s>
-0.3010 SUBS CUISINE. </s>
-0.3010 SUBS FOOD. </s>
-0.3010 SUBS FOOD.</S> </s>
-0.3010 SUBS RESTAURANT NEAR
-0.3010 SUBS RESTAURANT. </s>
-0.3010 SUSHI CUISINE. </s>
-0.3010 SUSHI FOOD. </s>
-0.3010 SUSHI FOOD.</S> </s>
-0.3010 SUSHI RESTAURANT NEAR
-0.3010 SUSHI RESTAURANT. </s>
-0.3010 THAI CUISINE. </s>
-0.3010 THAI FOOD. </s>
-0.3010 THAI FOOD.</S> </s>
-0.3010 THAI RESTAURANT NEAR
-0.3010 THAI RESTAURANT. </s>
-0.3010 THREE </s> </s>
-0.3010 TRADITIONAL CUISINE. </s>
-0.3010 TRADITIONAL FOOD. </s>
-0.3010 TRADITIONAL FOOD.</S> </s>
-0.3010 TRADITIONAL RESTAURANT NEAR
-0.3010 TRADITIONAL RESTAURANT. </s>
-0.3010 TWO </s> </s>
-0.3010 VEGAN CUISINE. </s>
-0.3010 VEGAN FOOD. </s>
-0.3010 VEGAN FOOD.</S> </s>
-0.3010 VEGAN RESTAURANT NEAR
-0.3010 VEGAN RESTAURANT. </s>
-0.3010 VEGETARIAN CUISINE. </s>
-0.3010 VEGETARIAN FOOD. </s>
-0.3010 VEGETARIAN FOOD.</S> </s>
-0.3010 VEGETARIAN RESTAURANT NEAR
-0.3010 VEGETARIAN RESTAURANT. </s>
-0.3010 WINGS CUISINE. </s>
-0.3010 WINGS FOOD. </s>
-0.3010 WINGS FOOD.</S> </s>
-0.3010 WINGS RESTAURANT NEAR
-0.3010 WINGS RESTAURANT. </s>
-0.3010 WITH AMERICAN CUISINE.
-0.3010 WITH ASIAN CUISINE.
-0.3010 WITH AUSTRALIAN CUISINE.
-0.3010 WITH BAGELS CUISINE.
-0.3010 WITH BAKERY CUISINE.
-0.3010 WITH BARBECUE CUISINE.
-0.3010 WITH BRITISH CUISINE.
-0.3010 WITH BURGERS CUISINE.
-0.3010 WITH CAFE CUISINE.
-0.3010 WITH CALIFORNIAN CUISINE.
-0.3010 WITH CHINESE CUISINE.
-0.3010 WITH COFFEE CUISINE.
-0.3010 WITH CONTINENTAL CUISINE.
-0.3010 WITH DONUTS CUISINE.
-0.3010 WITH DUTCH CUISINE.
-0.3010 WITH ENGLISH CUISINE.
-0.3010 WITH EUROPEAN CUISINE.
-0.3010 WITH FAST FOOD
-0.3010 WITH FRENCH CUISINE.
-0.3010 WITH GERMAN CUISINE.
-0.3010 WITH GRILL CUISINE.
-0.3010 WITH HUNGARIAN CUISINE.
-0.3010 WITH INDIAN CUISINE.
-0.3010 WITH INTERNATIONAL CUISINE.
-0.3010 WITH ITALIAN CUISINE.
-0.3010 WITH JAPANESE CUISINE.
-0.3010 WITH KOREAN CUISINE.
-0.3010 WITH MALAYSIAN CUISINE.
-0.3010 WITH MEXICAN CUISINE.
-0.3010 WITH PASTA CUISINE.
-0.3010 WITH PASTERIES CUISINE.
-0.3010 WITH PIZZA CUISINE.
-0.3010 WITH RUSSIAN CUISINE.
-0.3010 WITH SALAD CUISINE.
-0.3010 WITH SANDWICHES CUISINE.
-0.3010 WITH SPANISH CUISINE.
-0.3010 WITH STEAK CUISINE.
-0.3010 WITH SUBS CUISINE.
-0.3010 WITH SUSHI CUISINE.
-0.3010 WITH THAI CUISINE.
-0.3010 WITH TRADITIONAL CUISINE.
-0.3010 WITH VEGAN CUISINE.
-0.3010 WITH VEGETARIAN CUISINE.
-0.3010 WITH WINGS CUISINE.
-0.3010 YES </s> </s>

\end\
